const model = {"neuronCounts":[5,8],"classes":["car","fish","house","tree","bicycle","guitar","pencil","clock"],"network":{"levels":[{"inputs":[0.274,0.36519607843137253,0.2904281641785299,0.38661846975474795,0.04167217186798087],"outputs":[0.44075956103385056,-1.061267093973651,0.3712011518026662,0.07904352048070862,0.13708100129257558,0.15971405685355872,0.6403099657097514,-0.6270964332395816],"biases":[0.02539710858096944,-0.18715434545221155,-0.35342080003449716,0.6429750700675123,-0.00481200225460765,0.07402733372414505,0.770666857012297,-0.7992886431299935],"weights":[[0.9379134741128496,-0.0916295339255997,-0.16784479580840217,0.4657019724741678,0.38180264995959434,-0.1966062955637986,-0.07692489011864345,-0.20996964915879235],[-0.836451046315231,-0.9620219569884947,0.5314549991959059,-0.6706769662055083,-0.08635840301684095,-0.10035939705915387,-0.4560219622643429,0.2099336798764686],[0.8986788167375721,-0.4367572293626212,0.7101124245494626,-0.7577487099952356,-0.09396726813289646,0.41533728858856933,0.8445890348310996,0.2869822956027226],[0.4481882918578919,-0.896434768436835,0.9466613058028106,-0.6351030218898897,0.15936738624643598,0.21234968489733652,-0.5116352571245224,0.25023150971990926],[0.7094252745558767,-0.582037613064766,0.10301241522502402,0.4561517259107053,0.8277272868372301,-0.6363059309207033,0.23452481020641258,-0.6487525436219377]]}]}};