const model = {"neuronCounts":[5,8],"classes":["car","fish","house","tree","bicycle","guitar","pencil","clock"],"network":{"levels":[{"inputs":[0.274,0.36519607843137253,0.2904281641785299,0.38661846975474795,0.04167217186798087],"outputs":[0.40052492623031904,0.326457372187507,0.4116439498172229,-1.1660494883871049,-0.5188989271986029,-0.1157860775559803,0.6394819660155049,0.08292630843307172],"biases":[0.2673034618334815,0.7875946826842666,0.8474728264874174,-0.8560619104153198,-0.15320358940969525,-0.3189684961563677,0.8013462702411898,-0.0325332186943883],"weights":[[0.9508824411983716,-0.27131528622149004,-0.43499733821457465,-0.6360606593004638,0.01735470164224817,0.29646516719358607,0.021646176520808913,0.4925085531914677],[-0.5544736340786369,-0.7264188183128018,0.6896471402356183,0.10493837871782863,0.1730470089770555,0.1724633102847397,0.030711535231541243,0.0046049555965610445],[0.10061730407222558,-0.14804783325551907,-0.758590699130582,-0.5553261535185308,-0.20198529944117816,-0.720599773292526,0.29194518990853524,-0.8811217456452127],[0.05594019335802236,-0.1946354070387213,-0.9974901970220138,0.010769819974576045,-0.885627374455543,0.795510390832247,-0.7036295396991104,0.5517201485439971],[0.5836427600772294,-0.07834280112432834,0.8991180177327109,-0.4058223265426377,-0.7819245709617086,-0.9432794296687415,0.19763744427238383,0.5142002998606785]]}]}};